tree
version=v3
num_class=1
num_tree_per_iteration=1
label_index=0
max_feature_idx=27
objective=regression
feature_names=1 2 3 4 5 6 7 8 9 10 11 12 13 14 15 16 17 18 19 20 21 22 23 24 25 26 27 28
feature_infos=[0.27500000000000002:6.6950000000000003] [-2.4169999999999998:2.4300000000000002] [-1.7430000000000001:1.7430000000000001] [0.019:5.7000000000000002] [-1.7430000000000001:1.7430000000000001] [0.159:4.1900000000000004] [-2.9410000000000003:2.9700000000000002] [-1.7409999999999999:1.7409999999999999] [0:2.173] [0.19:5.1929999999999996] [-2.9039999999999999:2.9089999999999998] [-1.742:1.7430000000000001] [0:2.2149999999999999] [0.26400000000000001:6.5229999999999997] [-2.7280000000000002:2.7269999999999999] [-1.742:1.742] [0:2.548] [0.36499999999999999:6.0679999999999996] [-2.4950000000000001:2.496] [-1.74:1.7430000000000001] [0:3.1019999999999999] [0.17199999999999999:13.097999999999999] [0.41899999999999998:7.3920000000000003] [0.46100000000000002:3.6819999999999999] [0.38400000000000001:6.5829999999999993] [0.093000000000000013:7.8600000000000003] [0.38900000000000001:4.5430000000000001] [0.48899999999999999:4.3159999999999998]
tree_sizes=2751 2793 2778 2785 2791 2805 2781 2804 2796 2804 2816 2802 2813 2788 2820 2796 2831 2787 2806 2805

Tree=0
num_leaves=31
num_cat=0
split_feature=25 26 27 25 25 24 22 5 5 27 26 27 25 26 27 24 3 25 13 3 22 19 5 24 4 4 25 24 13 24
split_gain=64.2638 41.1203 38.5382 15.7445 17.6357 13.1388 20.9834 8.97069 8.36848 6.94986 6.92699 6.62141 6.49419 5.50946 5.46418 8.41181 4.47175 4.33248 4.05326 3.78403 3.60298 3.83289 3.54533 3.34893 3.17171 3.41713 3.15454 3.16484 3.07026 3.59655
threshold=1.2815000000000001 0.78050000000000008 0.90450000000000019 0.98450000000000015 0.6785000000000001 1.0265000000000002 1.0445000000000002 0.82550000000000001 1.0195000000000003 0.9225000000000001 0.86950000000000016 0.78850000000000009 0.62350000000000005 0.88850000000000018 0.88950000000000007 1.1225000000000003 1.9205000000000003 0.98950000000000016 1.3835000000000004 1.8335000000000004 0.94750000000000012 -0.96449999999999991 1.3365000000000002 0.71850000000000014 1.2535000000000001 -0.27149999999999996 0.58650000000000013 0.74550000000000016 0.96150000000000013 0.75150000000000006
decision_type=2 2 2 2 2 2 2 2 2 2 2 2 2 2 2 2 2 2 2 2 2 2 2 2 2 2 2 2 2 2
left_child=1 7 3 4 28 6 -4 23 13 22 11 -6 -7 -5 20 -16 17 -14 -19 -17 -2 -22 26 -1 25 -8 27 -9 29 -3
right_child=14 2 5 8 10 12 24 9 -10 -11 -12 -13 16 -15 15 19 -18 18 -20 -21 21 -23 -24 -25 -26 -27 -28 -29 -30 -31
leaf_value=0.52569237744062003 0.52042998804716734 0.5422175113742802 0.51538920413460376 0.51981816153682081 0.54510850939454336 0.52481117997776638 0.53024021149375444 0.53098095223449515 0.54359999985354279 0.50431428556782854 0.54912120966902689 0.5308360246982633 0.54009109081946971 0.53374466531466402 0.51296357466735465 0.52530193988881624 0.52566845223449521 0.52869852202103051 0.54378796977835486 0.51133182942747768 0.51585274710629003 0.53764761890116186 0.54466516276081101 0.51861746405193609 0.52135974011328312 0.54153233068061046 0.5359689618268213 0.51383809509163803 0.54156918752861283 0.52867325992680292
leaf_weight=283 121 62 307 129 277 161 135 75 112 22 751 115 457 158 422 324 96 203 57 57 26 90 57 409 44 133 139 42 102 234
leaf_count=283 121 62 307 129 277 161 135 75 112 22 751 115 457 158 422 324 96 203 57 57 26 90 57 409 44 133 139 42 102 234
internal_value=0 0.0542306 0.105429 0.200071 0.245911 -0.00982764 -0.123749 -0.121899 0.0230276 0.0124264 0.309038 0.201286 0.062572 -0.0674425 -0.221242 -0.260621 0.0989092 0.126047 0.022989 -0.152904 -0.0878192 0.0381084 0.0506125 -0.186927 0.0588864 0.0997399 0.000392854 -0.120601 0.0646202 0.0130618
internal_weight=0 4560 3533 1940 1541 1593 619 1027 399 335 1143 392 974 287 1040 803 813 717 260 381 237 116 313 692 312 268 256 117 398 296
internal_count=5600 4560 3533 1940 1541 1593 619 1027 399 335 1143 392 974 287 1040 803 813 717 260 381 237 116 313 692 312 268 256 117 398 296
shrinkage=1


Tree=1
num_leaves=31
num_cat=0
split_feature=25 26 25 25 3 5 22 5 26 22 22 26 22 3 26 24 9 25 3 5 24 26 19 13 9 19 24 5 23 3
split_gain=57.998 37.1842 19.7978 29.3277 9.48741 8.47208 4.98385 4.82022 5.37321 4.63142 4.75234 4.4306 5.04589 3.95124 3.55227 3.31417 3.18017 3.17337 3.09025 3.05593 2.88688 2.87323 2.94715 2.86761 2.80621 2.51941 2.4774 2.33827 2.33 2.64844
threshold=1.2815000000000001 0.77650000000000008 0.62350000000000005 0.98950000000000016 1.6175000000000004 0.82550000000000001 1.0445000000000002 0.88150000000000006 1.0375000000000003 1.0025000000000002 0.84950000000000014 0.97650000000000003 0.78450000000000009 0.97650000000000003 0.94950000000000012 0.71850000000000014 0.89250000000000018 2.0390000000000006 1.1435000000000002 1.5755000000000001 1.7450000000000003 1.1205000000000003 0.62900000000000011 0.73250000000000004 0.81850000000000012 1.0425000000000002 1.1005000000000003 0.98050000000000004 0.98050000000000004 0.33650000000000008
decision_type=2 2 2 2 2 2 2 2 2 2 2 2 2 2 2 2 2 2 2 2 2 2 2 2 2 2 2 2 2 2
left_child=1 5 19 4 7 15 11 18 -9 10 -5 24 -13 -7 27 25 -15 -8 -4 -3 23 -16 -23 -6 -2 28 -14 -11 -1 -30
right_child=6 2 3 9 20 13 17 8 -10 14 -12 12 26 16 21 -17 -18 -19 -20 -21 -22 22 -24 -25 -26 -27 -28 -29 29 -31
leaf_value=-0.01758896773276122 -0.015886550797865943 -0.0045506583784849907 0.010059530599865803 0.0012560363238056501 0.010203735999177012 0.0051373209014083402 -0.0028051813905553302 0.016193213175583934 0.0081649257771430478 -0.012061795704769639 -0.0085845859800006315 -0.0013398051506183187 -0.019440598974625273 -0.012316036035742941 0.011501728870519777 -0.012021098123457198 0.0041094512381452198 -0.013578079881206637 0.0031045699778657694 0.0081468347173470727 -0.01396370530128479 -0.0035369677724791508 0.011944816227663649 -0.00088550306459855756 0.00014402270317077638 -0.014215654288900309 -0.012234684433599916 0.0080025848001241684 0.014099996422345823 -0.003008757403184628
leaf_weight=23 39 534 688 216 89 198 258 636 310 53 284 61 300 79 123 399 47 93 208 52 28 102 44 169 91 58 198 20 26 174
leaf_count=23 39 534 688 216 89 198 258 636 310 53 284 61 300 79 123 399 47 93 208 52 28 102 44 169 91 58 198 20 26 174
internal_value=0 0.051519 0.0995015 0.132645 0.195152 -0.118427 -0.21018 0.221463 0.271248 -0.0253308 -0.0866687 -0.259589 -0.29826 0.0146523 0.0643445 -0.181835 -0.123781 -0.113191 0.1689 -0.0684784 0.0256992 0.117436 0.0225755 0.0587971 -0.093303 -0.0986461 -0.331512 -0.131294 -0.0503561 -0.0156924
internal_weight=0 4560 3556 2970 2128 1004 1040 1842 946 842 500 689 559 324 342 680 126 351 896 586 286 269 146 258 130 281 498 73 223 200
internal_count=5600 4560 3556 2970 2128 1004 1040 1842 946 842 500 689 559 324 342 680 126 351 896 586 286 269 146 258 130 281 498 73 223 200
shrinkage=0.05


Tree=2
num_leaves=31
num_cat=0
split_feature=27 26 24 22 5 3 5 22 27 26 26 22 22 22 24 26 26 27 5 18 18 27 24 24 22 1 4 26 13 19
split_gain=36.8254 45.6778 22.3028 23.6857 10.0962 6.83244 6.69139 4.7165 5.52377 4.67596 4.03497 3.38164 3.36074 4.61598 3.31797 3.28495 3.25824 3.15948 3.0864 2.92354 2.78007 2.70737 2.68146 2.67363 3.04152 2.66607 2.61054 3.84724 2.54227 2.52315
threshold=0.90250000000000019 0.81150000000000011 1.0265000000000002 1.0445000000000002 0.82050000000000012 1.9205000000000003 0.89650000000000007 1.0355000000000001 0.83850000000000013 1.3665 1.2195000000000003 1.5530000000000002 1.0465000000000002 0.74450000000000016 0.78250000000000008 0.77250000000000008 0.89850000000000019 1.0885000000000002 1.3665 -0.80349999999999988 0.037500000000000012 0.73350000000000015 0.71850000000000014 0.73550000000000015 0.8015000000000001 -0.50249999999999984 -1.2844999999999998 0.86050000000000015 0.78050000000000008 0.8035000000000001
decision_type=2 2 2 2 2 2 2 2 2 2 2 2 2 2 2 2 2 2 2 2 2 2 2 2 2 2 2 2 2 2
left_child=1 4 3 17 15 12 7 8 26 14 25 -11 13 -4 28 22 -10 23 -6 -13 21 -17 29 -2 -25 -7 27 -3 -5 -1
right_child=2 6 5 9 18 10 -8 -9 16 11 -12 19 -14 -15 -16 20 -18 -19 -20 -21 -22 -23 -24 24 -26 -27 -28 -29 -30 -31
leaf_value=-0.0018218447843556683 -0.0041155653780904312 -0.013992449061738122 0.009252751486168968 -0.0026156934684720533 0.00065718168330119661 0.010534546871980032 0.011484560198140604 0.012034066713282041 -0.011874620550695589 -0.020978226966974212 -0.016398299014081762 -0.015725135627914878 0.0039181870907658411 -0.0028525765855160973 -0.001462307080553083 0.0020688150791411705 0.0011429267867309292 -0.021681162311834992 0.012586306310617008 0.0024178368272259835 0.0063205463056628776 -0.014645776599645617 -0.011546035127059835 -0.0052181920834950043 -0.018060125450521596 -0.0084662642019490402 0.0078810564541175014 0.0080475810915231708 0.015065563798827284 -0.012324231408718156
leaf_weight=189 58 36 90 29 327 30 934 224 68 41 98 34 526 630 203 47 164 207 65 64 74 50 370 56 261 48 483 44 68 82
leaf_count=189 58 36 90 29 327 30 934 224 68 41 98 34 526 630 203 47 164 207 65 64 74 50 370 56 261 48 483 44 68 82
internal_value=0 0.0741072 -0.0894119 -0.202172 -0.0790909 -0.00844988 0.168552 0.112513 0.0763995 -0.0268002 -0.192884 -0.17842 0.0176018 -0.0267882 0.0434503 -0.142716 -0.0534512 -0.334454 0.0527045 -0.0775333 -0.0195712 -0.130939 -0.175568 -0.279713 -0.31583 -0.0231652 0.129908 -0.0374086 0.195588 -0.0999938
internal_weight=0 3157 2443 1021 1204 1422 1953 1019 795 439 176 139 1246 720 300 812 232 582 392 98 171 97 641 375 317 78 563 80 97 271
internal_count=5600 3157 2443 1021 1204 1422 1953 1019 795 439 176 139 1246 720 300 812 232 582 392 98 171 97 641 375 317 78 563 80 97 271
shrinkage=0.05


Tree=3
num_leaves=31
num_cat=0
split_feature=25 26 27 25 25 25 26 24 22 27 5 22 27 27 3 5 25 3 5 22 17 21 6 4 25 13 27 27 24 21
split_gain=51.0898 36.3911 29.5248 11.8238 10.7494 9.78757 7.53824 7.19914 13.948 6.73145 6.48817 6.0235 6.14041 6.02218 5.64287 5.38636 4.28526 3.91247 3.6847 3.48621 3.2795 3.09359 3.02598 2.86807 3.41042 2.69356 3.12131 2.60438 2.5753 2.57191
threshold=1.0565000000000002 0.78050000000000008 0.90450000000000019 0.6785000000000001 1.4915 0.62350000000000005 0.86950000000000016 1.0065000000000002 0.99950000000000017 0.78250000000000008 0.82550000000000001 1.0025000000000002 1.0445000000000002 0.75650000000000006 1.6740000000000002 0.91550000000000009 0.94850000000000012 1.8335000000000004 1.2445000000000002 0.73650000000000004 2.1615000000000006 1.0475000000000001 -1.2374999999999998 -0.039499999999999993 0.81350000000000011 0.96150000000000013 0.84050000000000014 0.9225000000000001 0.82250000000000012 0.86550000000000005
decision_type=2 2 2 2 2 2 2 2 2 2 2 2 2 2 2 2 2 2 2 2 2 2 2 2 2 2 2 2 2 2
left_child=1 10 3 25 11 21 9 8 -7 16 -1 12 15 22 18 -2 -5 20 -9 -17 -6 -4 -12 24 -11 26 28 -15 -3 -27
right_child=4 2 5 6 17 7 -8 14 -10 23 13 -13 -14 27 -16 19 -18 -19 -20 -21 -22 -23 -24 -25 -26 29 -28 -29 -30 -31
leaf_value=-0.0079086533997548576 -0.0089789535231918471 0.010057944059371949 -0.011954964856418331 0.014285533681390732 -0.01173099374681562 -0.014296328018491084 0.015373354016059458 0.0057560736948218429 0.0053050917208469417 0.0085785033447401873 -0.011727544730124266 0.001265237040797099 -0.015995401626741384 -0.005084044304562778 -0.003313245618616352 0.017790572345256807 -0.0028227154252141022 -0.024207597672939302 0.015584136706132155 -0.00071337022596881501 0.0038070350471470088 -0.0012283464410790691 0.0074429304167932392 0.0054944920738538112 -0.01529542007125341 -0.00096022188663482668 -0.008445374766985576 -0.024458087100224062 -0.00098965795182470078 0.015653788637031207
leaf_weight=667 247 87 178 246 599 156 854 358 217 21 23 361 142 82 131 30 43 60 130 168 36 108 196 75 52 36 75 22 134 66
leaf_count=667 247 87 178 246 599 156 854 358 217 21 23 361 142 82 131 30 43 60 130 168 36 108 196 75 52 36 75 22 134 66
internal_value=0 0.0641806 0.119576 0.206349 -0.145597 0.00489686 0.252805 0.0518862 -0.0578564 0.145983 -0.101838 -0.0763402 -0.138851 0.0144961 0.118015 -0.0810755 0.2348 -0.240065 0.167484 0.0418051 -0.217002 -0.158087 0.108592 -0.0274495 -0.168552 0.0556586 0.00736648 -0.183648 0.067188 0.1958
internal_weight=0 3957 2967 1689 1643 1278 1291 992 373 437 990 948 587 323 619 445 289 695 488 198 635 286 219 148 73 398 296 104 221 102
internal_count=5600 3957 2967 1689 1643 1278 1291 992 373 437 990 948 587 323 619 445 289 695 488 198 635 286 219 148 73 398 296 104 221 102
shrinkage=0.05


Tree=4
num_leaves=31
num_cat=0
split_feature=25 26 27 25 25 25 26 24 22 27 5 22 27 27 3 5 25 3 24 17 0 25 22 5 5 6 5 11 21 5
split_gain=46.1085 32.843 26.6462 10.671 9.70137 8.83328 6.80326 6.49824 12.1909 6.07513 5.85558 5.43621 5.54172 5.43502 4.90985 4.86119 3.86744 3.531 3.16612 4.05638 3.55939 3.18483 3.14631 3.13118 2.83846 2.73094 2.70745 2.68151 2.6662 2.67921
threshold=1.0565000000000002 0.78050000000000008 0.90450000000000019 0.6785000000000001 1.4915 0.62350000000000005 0.86950000000000016 1.0185000000000002 0.99950000000000017 0.78250000000000008 0.82550000000000001 1.0025000000000002 1.0445000000000002 0.75650000000000006 1.6740000000000002 0.91550000000000009 0.94850000000000012 1.8335000000000004 1.3545000000000003 1.5825000000000002 1.1075000000000002 2.0390000000000006 0.73650000000000004 1.2445000000000002 1.5755000000000001 -1.2374999999999998 1.2105000000000001 -0.39449999999999991 1.0835000000000001 0.74150000000000016
decision_type=2 2 2 2 2 2 2 2 2 2 2 2 2 2 2 2 2 2 2 2 2 2 2 2 2 2 2 2 2 2
left_child=1 10 3 -3 11 24 9 8 -7 16 -1 12 15 25 23 -2 -5 18 20 -20 21 26 -17 -9 -4 -12 -6 -16 -10 -30
right_child=4 2 5 6 17 7 -8 14 28 -11 13 -13 -14 -15 27 22 -18 -19 19 -21 -22 -23 -24 -25 -26 -27 -28 -29 29 -31
leaf_value=-0.0075132202842961189 -0.0085300057523163709 0.0026437830198649788 -0.0094589562245434335 0.013571256974606011 -0.010460049619800167 -0.013344372144550276 0.014604686181425212 0.0055559381716332196 0.010434506614820673 -0.0013038517655553047 -0.01114116686841716 0.0012019751763740075 -0.01519563076361804 -0.0087232794899206895 0.0058249274412026774 0.016901044050852458 -0.0026815799433131549 -0.022997217451532683 -0.0082738470818315233 0.011911515006795527 -0.019388698728289456 -0.018161428938893713 -0.00067770160912048252 0.014681112638209017 0.0052160053660995085 0.0070707836701553702 0.0001484695314006372 -0.0088333417971928913 -0.014965207278728486 0.0035599129253558897
leaf_weight=667 247 398 248 246 190 157 854 354 109 148 23 361 142 104 52 30 43 60 112 32 128 85 168 128 38 196 88 78 25 89
leaf_count=667 247 398 248 246 190 157 854 354 109 148 23 361 142 104 52 30 43 60 112 32 128 85 168 128 38 196 88 78 25 89
internal_value=0 0.0609716 0.113597 0.196032 -0.138317 0.00465202 0.240165 0.0492919 -0.0534212 0.138684 -0.0967457 -0.0725232 -0.131908 0.0137713 0.113068 -0.0770218 0.22306 -0.228062 -0.206152 -0.0757642 -0.244392 -0.193833 0.0397149 0.159584 -0.150183 0.103162 -0.142039 -0.0594007 0.0968667 -0.0100523
internal_weight=0 3957 2967 1689 1643 1278 1291 992 380 437 990 948 587 323 612 445 289 695 635 144 491 363 198 482 286 219 278 130 223 114
internal_count=5600 3957 2967 1689 1643 1278 1291 992 380 437 990 948 587 323 612 445 289 695 635 144 491 363 198 482 286 219 278 130 223 114
shrinkage=0.05


Tree=5
num_leaves=31
num_cat=0
split_feature=25 25 26 25 22 26 5 9 5 9 21 21 24 9 25 21 24 13 25 26 9 24 3 10 26 21 24 0 22 22
split_gain=42.454 28.147 16.3333 9.5147 9.65305 7.65103 7.51388 7.46161 5.07417 3.93104 3.91636 3.77533 3.90268 3.63958 3.08273 4.07832 3.11847 3.05877 3.0506 3.41463 2.89779 3.92987 2.80745 2.87782 2.78889 3.2697 2.76335 2.75396 2.72676 4.05505
threshold=1.0675000000000001 0.6695000000000001 0.80850000000000011 1.6050000000000002 1.0265000000000002 1.0825000000000002 0.82050000000000012 1.1375000000000002 0.88150000000000006 1.3035000000000003 0.90350000000000008 0.5475000000000001 1.2685000000000002 1.2475000000000003 0.94850000000000012 1.0835000000000001 1.1915000000000002 1.4485000000000003 0.94550000000000012 0.77250000000000008 1.2895000000000003 1.0065000000000002 2.4510000000000005 -1.1604999999999996 1.0975000000000001 1.0325000000000002 0.78250000000000008 1.7125000000000001 0.7985000000000001 1.0065000000000002
decision_type=2 2 2 2 2 2 2 2 2 2 2 2 2 2 2 2 2 2 2 2 2 2 2 2 2 2 2 2 2 2
left_child=1 7 6 4 11 8 18 10 13 22 28 -2 24 14 15 16 -4 -12 19 -3 26 -22 23 -7 25 -13 -6 -10 -1 -30
right_child=3 2 5 -5 20 9 -8 -9 27 -11 17 12 -14 -15 -16 -17 -18 -19 -20 -21 21 -23 -24 -25 -26 -27 -28 -29 29 -31
leaf_value=-0.0026288333174946544 0.0041289207481202631 -0.0077559801043519663 0.010727821870198761 -0.012297540782649715 0.010073816478252411 -0.0089953579008579254 0.0063422058206616021 0.0047784380458887653 0.013426701572254627 0.0094880772367963249 -0.0029422782191402836 -0.010861533983323561 -0.0018668864508095029 0.015875560702175225 -0.00094692698238711616 -0.0035181102814612454 -0.00054836624289212167 0.010611177397810895 -0.017117154855152656 0.0049512270470740095 -0.0023888784978124832 0.016715117043523648 -0.015638817961399373 0.0030394789757411606 -0.017654545887790876 0.0016066238284111025 -0.0029535523764619002 0.0045825964005866858 -0.013005367300183479 -0.0017774900523099034
leaf_weight=182 63 207 383 532 50 58 165 239 685 159 438 318 159 93 152 77 73 46 58 71 45 67 26 346 116 63 219 101 299 110
leaf_count=182 63 207 383 532 50 58 165 239 685 159 438 318 159 93 152 77 73 46 58 71 45 67 26 346 116 63 219 101 299 110
internal_value=0 0.0554484 0.114711 -0.136157 -0.0830566 0.152553 -0.0479154 -0.0642486 0.189136 0.0554134 -0.0997801 -0.151249 -0.173705 0.131885 0.106683 0.142508 0.178453 -0.0330828 -0.133735 -0.0902123 0.0456313 0.180788 0.0057358 0.0262341 -0.217331 -0.175997 -0.0106422 0.245805 -0.154402 -0.199713
internal_weight=0 3968 2654 1632 1100 2153 501 1314 1564 589 1075 719 656 778 685 533 456 484 336 278 381 112 430 404 497 381 269 786 591 409
internal_count=5600 3968 2654 1632 1100 2153 501 1314 1564 589 1075 719 656 778 685 533 456 484 336 278 381 112 430 404 497 381 269 786 591 409
shrinkage=0.05


Tree=6
num_leaves=31
num_cat=0
split_feature=27 26 24 22 5 5 24 0 0 5 22 17 19 26 27 11 22 22 23 14 0 27 2 24 27 24 22 13 27 24
split_gain=28.2197 29.427 13.784 15.0835 6.95327 6.90398 4.65643 4.12917 3.66752 4.04416 3.5596 2.94785 3.15841 2.8748 2.71205 2.71122 2.96776 3.03499 2.72799 2.70042 2.57504 2.56017 2.5509 3.02587 2.52119 2.74132 2.5017 2.40339 2.30596 2.28797
threshold=0.90250000000000019 0.81150000000000011 1.0265000000000002 1.0485000000000004 0.82550000000000001 0.88150000000000006 2.3415000000000004 1.3835000000000004 1.6635000000000002 1.6890000000000003 0.97150000000000014 0.59750000000000003 0.64800000000000013 1.3665 0.80650000000000011 1.4915 1.0465000000000002 0.77950000000000019 0.98750000000000016 0.59050000000000014 0.52950000000000019 1.5530000000000002 -1.0085 0.89850000000000019 1.0885000000000002 0.73550000000000015 0.8015000000000001 1.3315000000000001 1.5795000000000001 0.71450000000000014
decision_type=2 2 2 2 2 2 2 2 2 2 2 2 2 2 2 2 2 2 2 2 2 2 2 2 2 2 2 2 2 2
left_child=1 4 3 7 20 10 15 24 9 13 -3 12 -12 22 -6 16 17 27 -18 -20 -1 -11 -5 -24 25 -2 -27 -4 -19 -22
right_child=2 5 6 8 14 -7 -8 -9 -10 21 11 -13 -14 -15 -16 -17 18 28 19 -21 29 -23 23 -25 -26 26 -28 -29 -30 -31
leaf_value=-0.012001700993001897 0.0032158329389816113 0.0016279887443953389 0.0022291185477605231 0.011652877546371298 0.0043029982020802307 0.009853200008045189 -0.012994239906469982 -0.020404305495321753 -0.013442135301598332 0.022651952654123307 0.0061016414687037474 0.0099187279923703756 -0.017844152734393166 -0.0087463334489327211 -0.0075434358234991103 -0.0080811743393982994 0.0081869163266990504 -0.0025402708043312204 0.0033889845714849586 -0.0063764122371770902 -0.00053385432007946548 -0.00044281393289566048 0.0038487526277701059 -0.0089316919445991527 -0.016805886869667143 -0.00060224127769470219 -0.013214748482341353 0.020419411090287297 -0.019406167524201531 -0.0066626154131172975
leaf_weight=137 43 622 104 47 317 978 75 168 57 30 40 299 21 104 57 101 184 580 255 98 237 20 114 78 131 50 184 22 21 426
leaf_count=137 43 622 104 47 317 978 75 168 57 30 40 299 21 104 57 101 184 580 255 98 237 20 114 78 131 50 184 22 21 426
internal_value=0 0.0625981 -0.0803981 -0.16897 -0.0626057 0.137593 -0.0172903 -0.27614 -0.0317932 0.00258803 0.0783635 0.157502 -0.0428399 -0.0361427 0.0499505 -0.00396095 0.00863709 -0.0330077 0.0650166 0.0135582 -0.115226 0.268281 0.0242486 -0.0268661 -0.22181 -0.167751 -0.210395 0.108104 -0.0625919 -0.0894358
internal_weight=0 3134 2466 1026 1174 1960 1440 576 450 393 982 360 61 343 374 1365 1264 727 537 353 800 50 239 192 408 277 234 126 601 663
internal_count=5600 3134 2466 1026 1174 1960 1440 576 450 393 982 360 61 343 374 1365 1264 727 537 353 800 50 239 192 408 277 234 126 601 663
shrinkage=0.05


Tree=7
num_leaves=31
num_cat=0
split_feature=25 25 26 27 25 9 5 26 9 27 24 27 27 5 26 24 8 13 17 5 0 25 25 26 5 3 2 14 0 0
split_gain=37.4225 24.5342 13.9973 15.0273 8.09116 7.20874 5.54567 4.83806 4.64626 4.34531 3.97795 5.15531 3.90176 3.76839 3.51654 3.45238 3.33611 3.20929 3.13111 3.09366 3.35812 2.80298 2.78246 3.04784 2.70947 2.58349 2.5726 2.5151 2.50815 2.41619
threshold=1.0675000000000001 0.68250000000000011 0.80850000000000011 0.90450000000000019 1.6175000000000004 1.0415000000000003 0.82050000000000012 0.86350000000000016 1.2680000000000005 0.85250000000000015 1.2745000000000002 0.90250000000000019 0.7965000000000001 0.88650000000000007 0.79050000000000009 2.1485000000000007 1.6300000000000001 1.7045000000000001 0.73550000000000015 0.77950000000000019 1.7305000000000004 0.83950000000000014 0.94550000000000012 0.77250000000000008 0.59450000000000014 1.4035000000000004 1.3615000000000002 -0.28249999999999992 0.88950000000000007 1.4035000000000004
decision_type=2 2 2 2 2 2 2 2 2 2 2 2 2 2 2 2 2 2 2 2 2 2 2 2 2 2 2 2 2 2
left_child=1 5 6 7 10 9 22 12 16 14 11 13 29 18 -1 -12 -5 26 -2 -18 -21 -14 23 -3 28 -26 -13 -7 -16 -4
right_child=4 2 3 8 -6 27 -8 -9 -10 -11 15 17 21 -15 24 -17 19 -19 -20 20 -22 -23 -24 -25 25 -27 -28 -29 -30 -31
leaf_value=-0.0047932852150463475 -0.013299176465604724 -0.0070734311360865837 0.011063257001695179 -0.0026325211310020799 -0.011590614403665184 0.0088557724521231302 0.0054928765950664404 0.012866639271973205 0.0085739545428190119 -0.0093442540700462741 0.0030621639995211101 -0.013220117278273319 0.0062366033239024026 0.0028237347611399931 -0.016504682394964942 -0.015455680287310057 -0.0040313799120485789 0.0018490822017192842 -0.0017716475427150729 0.010294355238010871 -0.0060553253481262607 -0.011450480204075575 -0.0159416192564471 0.0051786915979523595 0.010062183012133061 -0.006201549114719514 0.0011020446249416897 0.00012829352949940884 0.005106301426887512 -0.0064446575262329794
leaf_weight=492 97 192 189 391 513 134 155 877 233 352 249 301 42 209 29 28 80 50 150 181 38 48 58 69 115 31 35 215 25 22
leaf_count=492 97 192 189 391 513 134 155 877 233 352 249 301 42 209 29 28 80 50 150 181 38 48 58 69 115 31 35 215 25 22
internal_value=0 0.0520732 0.109908 0.144927 -0.12782 -0.0548355 -0.0453159 0.219788 0.0493842 -0.0964281 -0.0801451 -0.114343 0.110398 -0.0423512 -0.0504154 0.0238065 0.00815507 -0.19939 -0.125973 0.0876699 0.149148 -0.0639302 -0.120714 -0.0766873 0.0613925 0.132178 -0.234565 0.0695849 -0.129992 0.184756
internal_weight=0 3968 2575 2101 1632 1393 474 1178 923 1044 1119 842 301 456 692 277 690 386 247 299 219 90 319 261 200 146 336 349 54 211
internal_count=5600 3968 2575 2101 1632 1393 474 1178 923 1044 1119 842 301 456 692 277 690 386 247 299 219 90 319 261 200 146 336 349 54 211
shrinkage=0.05


Tree=8
num_leaves=31
num_cat=0
split_feature=25 26 27 5 22 25 25 9 27 5 27 21 0 5 27 26 21 26 22 21 1 26 3 5 0 9 26 25 25 25
split_gain=34.0118 17.5262 21.7239 7.63613 7.41296 5.99294 5.52277 4.8291 4.44647 4.3438 4.93969 3.9761 3.92187 4.56984 3.69204 4.19019 3.40506 3.34606 3.30524 3.25207 2.84627 2.78851 2.73432 2.72295 2.67449 3.28468 2.63634 2.56072 2.53562 2.46126
threshold=1.2815000000000001 0.81150000000000011 0.90250000000000019 0.88150000000000006 1.0445000000000002 0.98450000000000015 0.6695000000000001 1.1035000000000001 1.0285000000000004 0.82550000000000001 0.80650000000000011 1.1055000000000001 1.2835000000000003 0.7985000000000001 1.0835000000000001 1.1395000000000002 1.0870000000000002 0.94150000000000011 1.1705000000000003 0.61150000000000004 -0.70949999999999991 0.99750000000000016 2.0965000000000003 1.4565000000000001 0.94850000000000012 0.86950000000000016 0.86950000000000016 0.83950000000000014 0.46200000000000002 0.97350000000000014
decision_type=2 2 2 2 2 2 2 2 2 2 2 2 2 2 2 2 2 2 2 2 2 2 2 2 2 2 2 2 2 2
left_child=1 9 3 5 12 6 24 -6 16 -1 -11 26 13 20 15 -14 19 -7 -10 -2 -4 -18 28 -21 25 -3 27 -8 -9 -15
right_child=8 2 4 -5 7 17 11 22 18 10 -12 -13 14 29 -16 -17 21 -19 -20 23 -22 -23 -24 -25 -26 -27 -28 -29 -30 -31
leaf_value=-0.00528020160810019 0.0040697460761293771 -0.01393064586287838 0.00077882976950825874 0.011246558005765359 -0.00016231052316985765 -0.008236589070742692 0.010758393338840941 -0.0073463366145179385 -0.014105878023182706 0.0040356596452849258 -0.0088684232425443911 -0.0038513258959238343 -0.0072144593249578951 0.0047471924155366189 -0.015887849187513566 0.016492550955577331 0.018217917504134002 0.0053952985666167567 -0.0061601447013135144 -0.0093560093221907135 -0.011272362223986922 -0.002475697638058081 -0.0078561810851097112 0.0077517872452735909 0.0061046052824806525 0.0047706354887057578 0.01337615561981996 -0.0022651584120467307 0.010698093613435267 -0.0033761169736077189
leaf_weight=832 64 59 74 805 429 123 92 21 353 315 97 52 122 255 106 22 27 71 208 334 145 41 25 25 74 39 312 64 267 147
leaf_count=832 64 59 74 805 429 123 92 21 353 315 97 52 122 255 106 22 27 71 208 334 145 41 25 25 74 39 312 64 267 147
internal_value=0 0.0371465 0.0752376 0.154432 -0.00778639 0.090378 0.133924 0.0656626 -0.162376 -0.0640214 0.0199512 0.185304 -0.0703572 -0.0277815 -0.176115 -0.0718511 -0.0928826 -0.064952 -0.223197 -0.126272 -0.144005 0.114818 0.160109 -0.163293 -0.0214084 -0.129766 0.214451 0.108308 0.187647 0.0355346
internal_weight=0 4548 3304 1691 1613 886 692 742 1052 1244 412 520 871 621 250 144 491 194 561 423 219 68 313 359 172 98 468 156 288 402
internal_count=5600 4548 3304 1691 1613 886 692 742 1052 1244 412 520 871 621 250 144 491 194 561 423 219 68 313 359 172 98 468 156 288 402
shrinkage=0.05


Tree=9
num_leaves=31
num_cat=0
split_feature=25 25 26 27 25 22 5 26 5 25 27 9 27 5 26 5 3 9 3 23 3 27 14 21 22 9 24 1 25 4
split_gain=30.9576 20.8836 11.4082 10.3645 6.65764 7.69149 6.525 5.7402 5.61716 4.85272 4.64207 4.22612 4.04938 4.05081 3.63947 3.31367 3.7703 3.23892 3.03775 2.86085 2.84344 2.72078 2.59 2.54972 2.72534 2.43991 3.58524 2.57498 2.42004 2.37597
threshold=1.0675000000000001 0.6695000000000001 0.77650000000000008 0.90450000000000019 1.6175000000000004 1.0265000000000002 0.84250000000000014 0.86550000000000005 1.5755000000000001 0.83950000000000014 0.85250000000000015 1.3035000000000003 1.0285000000000004 1.0895000000000004 0.79050000000000009 0.81250000000000011 2.6165000000000007 0.91050000000000009 0.65850000000000009 1.3105000000000002 0.42050000000000004 0.7965000000000001 1.2275000000000003 0.88050000000000006 0.68650000000000011 1.2895000000000003 1.0065000000000002 1.3180000000000003 0.63450000000000017 1.4995000000000003
decision_type=2 2 2 2 2 2 2 2 2 2 2 2 2 2 2 2 2 2 2 2 2 2 2 2 2 2 2 2 2 2
left_child=1 8 6 7 5 12 22 9 10 -4 14 15 13 17 19 -5 29 -2 -15 20 -1 -11 -3 24 -22 27 -27 -7 -12 -17
right_child=4 2 3 11 -6 25 -8 -9 -10 21 28 -13 -14 18 -16 16 -18 -19 -20 -21 23 -23 -24 -25 -26 26 -28 -29 -30 -31
leaf_value=0.0037400940540193144 -0.010848695605863131 -0.0091445565349974871 0.0092778092723781787 -0.0039645999837457464 -0.010529247669913384 0.0012106914027237598 0.0067493319382955289 0.011444331447665509 0.0095663351894811136 0.0024727015090840205 -0.0092544905486561004 0.008394767643382017 -0.012809910974940476 -0.0067182548198045471 0.0034634055419899955 0.0050044668176009149 -0.015132949418491788 -0.001738783515551511 0.0086505759721514832 0.01433871721937543 0.0044272088046584815 -0.010328578065007421 0.0074829939466256367 -0.0023308070192874317 -0.012328985398942298 -0.0025076843150283979 0.015620412421760274 -0.014315827538569768 0.0017144587276310755 -0.010862915754318239
leaf_weight=87 229 236 236 267 513 243 116 884 86 140 378 219 196 51 261 419 27 170 87 21 28 59 26 213 182 46 67 30 58 25
leaf_count=87 229 236 236 267 513 243 116 884 86 140 378 219 196 51 261 419 27 170 87 21 28 59 26 213 182 46 67 30 58 25
internal_value=0 0.0473646 0.0984109 0.12513 -0.116253 -0.0730077 -0.0624675 0.18261 -0.0557379 0.0885681 -0.0730405 0.0459063 -0.133171 -0.0882672 -0.0274224 0.00970626 0.0601575 -0.139346 0.0594158 -0.0749482 -0.0898426 -0.0264531 -0.14989 -0.123706 -0.201897 0.0412403 0.164817 -0.00991039 -0.155906 0.0822207
internal_weight=0 3968 2654 2276 1632 1119 378 1319 1314 435 1228 957 733 537 792 738 471 399 138 531 510 199 262 423 210 386 113 273 436 444
internal_count=5600 3968 2654 2276 1632 1119 378 1319 1314 435 1228 957 733 537 792 738 471 399 138 531 510 199 262 423 210 386 113 273 436 444
shrinkage=0.05


Tree=10
num_leaves=31
num_cat=0
split_feature=25 25 26 27 3 5 26 25 22 9 25 21 27 9 13 24 22 22 24 3 13 1 24 21 24 5 3 27 18 22
split_gain=31.1365 22.5524 12.1779 14.0953 6.03101 4.97246 4.84286 6.95616 4.64536 4.57412 4.28208 4.6436 3.60869 3.56671 3.59539 3.55893 7.20888 3.08062 2.9968 2.75607 2.95547 2.58428 2.58379 2.49619 2.46956 2.4659 2.37948 2.3201 2.4522 2.29386
threshold=1.0895000000000004 0.59250000000000014 0.77650000000000008 0.89550000000000007 1.8335000000000004 0.8015000000000001 0.85850000000000015 0.94550000000000012 1.0885000000000002 1.6075000000000002 1.7170000000000003 0.62050000000000016 0.79050000000000009 1.0365000000000002 1.3085000000000002 1.0755000000000001 1.0405000000000002 0.81650000000000011 1.1185000000000003 1.5935000000000004 0.50050000000000006 -0.71649999999999991 0.65850000000000009 0.91250000000000009 1.0335000000000003 0.60350000000000004 0.5445000000000001 0.84050000000000014 0.14600000000000002 1.0735000000000003
decision_type=2 2 2 2 2 2 2 2 2 2 2 2 2 2 2 2 2 2 2 2 2 2 2 2 2 2 2 2 2 2
left_child=1 13 5 6 8 29 7 12 10 15 11 -2 -4 14 17 16 23 -1 22 -17 -21 -20 -13 -5 -14 -8 -19 -15 -29 -3
right_child=4 2 3 9 -6 -7 25 -9 -10 -11 -12 18 24 27 -16 19 -18 26 21 20 -22 -23 -24 -25 -26 -27 -28 28 -30 -31
leaf_value=-0.0018806018339002075 0.0056365914642810822 -0.0080584287954955144 0.010566910669423533 -0.012840075105428695 -0.016630848350487358 0.0041321308775381605 0.0050087624148234429 -0.0085013158255960886 -0.00077233733994537318 0.010462734871913517 -0.012565037421173923 0.0030977637994857063 -0.0061190938994066038 0.0059018225855186207 0.005393207830096048 0.0051406701562191036 0.00361069508635246 -0.0024534971095048468 0.0077852107719941568 0.014097730612212962 -0.0057640195365936042 -0.0049436463980839177 -0.0098926030444326241 -0.0023071917063660092 0.0095810851082205779 0.012002375248300418 -0.010951794055525703 -0.011085877681182604 0.0040474964039666312 0.0086941184645349338
leaf_weight=203 88 287 276 150 127 154 149 82 411 126 263 42 67 119 63 413 222 104 55 22 126 145 432 90 40 818 396 59 49 22
leaf_count=203 88 287 276 150 127 154 149 82 411 126 263 42 67 119 63 413 222 104 55 22 126 145 432 90 40 818 396 59 49 22
internal_value=0 0.0424941 0.0851835 0.111973 -0.12374 -0.0641534 0.178169 0.0943064 -0.105267 0.0294726 -0.141282 -0.10331 0.1509 -0.0883683 -0.120994 0.00732935 -0.057666 -0.141503 -0.131518 0.0608549 -0.0562319 -0.0288642 -0.174831 -0.177805 -0.00499736 0.218495 -0.183683 0.0217249 -0.0843962 -0.137314
internal_weight=0 4037 3044 2581 1563 463 1432 465 1436 1149 1025 762 383 993 766 1023 462 703 674 561 148 200 474 240 107 967 500 227 108 309
internal_count=5600 4037 3044 2581 1563 463 1432 465 1436 1149 1025 762 383 993 766 1023 462 703 674 561 148 200 474 240 107 967 500 227 108 309
shrinkage=0.05


Tree=11
num_leaves=31
num_cat=0
split_feature=25 25 26 27 3 5 26 25 24 9 27 27 9 13 24 0 1 14 25 6 5 3 13 10 6 24 6 2 24 27
split_gain=28.1007 20.3536 10.9905 12.721 5.44298 4.48765 4.44142 6.92923 4.30648 4.12815 3.83497 3.754 3.21901 3.23881 3.21193 3.47936 3.276 2.67594 2.6423 2.76287 2.55933 2.48736 2.66731 2.48644 3.31703 2.42029 2.45243 2.41251 2.37605 2.27231
threshold=1.0895000000000004 0.59250000000000014 0.77650000000000008 0.89550000000000007 1.8335000000000004 0.8015000000000001 0.88650000000000007 0.96550000000000014 1.1185000000000003 1.6075000000000002 0.82250000000000012 0.91650000000000009 1.0415000000000003 1.3085000000000002 1.0755000000000001 1.0045000000000002 -1.4734999999999998 -0.62549999999999983 1.4755000000000003 -1.1224999999999998 0.68550000000000011 1.5935000000000004 0.50050000000000006 -1.3474999999999999 -1.5384999999999998 0.6705000000000001 1.3260000000000003 1.3615000000000002 0.8025000000000001 0.74750000000000016
decision_type=2 2 2 2 2 2 2 2 2 2 2 2 2 2 2 2 2 2 2 2 2 2 2 2 2 2 2 2 2 2
left_child=1 12 5 6 8 -3 7 10 11 14 -4 25 13 -1 15 16 -5 -14 -10 -20 -12 -16 -23 -18 -25 -2 -27 -13 -26 -7
right_child=4 2 3 9 -6 29 -8 -9 18 -11 20 27 17 -15 21 -17 23 -19 19 -21 -22 22 -24 24 28 26 -28 -29 -30 -31
leaf_value=-0.0067090073122200392 0.0066068557798862467 -0.0065224062325885002 0.0092255504057566964 -0.015853038946023353 -0.015799306004535496 0.0076448059507778707 0.011074083957459359 -0.0070163107232043623 0.0022624168458373049 0.0099395982802860314 -0.014719238451548987 -0.011209758458466366 0.0098058941581892593 0.0051235474527828277 0.0048836366388468715 -0.0077716883215202294 -0.011164169652121407 -0.0023383771471771194 0.0094914796023533275 -0.0069494812502417461 0.0039086704176885109 0.013392844118855217 -0.0054758186851228989 -0.011672091760017255 0.015910761472251681 -0.004058001110665792 -0.020221275985240938 0.0014776161531122722 0.0034329518331931187 -0.0059925585630394166
leaf_weight=705 50 309 493 26 127 112 762 95 258 126 28 435 63 63 413 197 28 162 29 215 54 22 126 27 54 383 25 41 130 42
leaf_count=705 50 309 493 26 127 112 762 95 258 126 28 435 63 63 413 197 28 162 29 215 54 22 126 27 54 383 25 41 130 42
internal_value=0 0.0403694 0.0809243 0.106374 -0.117553 -0.0609457 0.16926 0.109868 -0.100003 0.027999 0.151204 -0.140151 -0.0839499 -0.114767 0.00696288 -0.0547827 0.020041 0.0212404 -0.0253061 -0.0999087 -0.0490416 0.0578122 -0.0534203 0.0567131 0.093869 -0.0755198 -0.100968 -0.202339 0.141898 0.0785105
internal_weight=0 4037 3044 2581 1563 463 1432 670 1436 1149 575 934 993 768 1023 462 265 225 502 244 82 561 148 239 211 458 408 476 184 154
internal_count=5600 4037 3044 2581 1563 463 1432 670 1436 1149 575 934 993 768 1023 462 265 225 502 244 82 561 148 239 211 458 408 476 184 154
shrinkage=0.05


Tree=12
num_leaves=31
num_cat=0
split_feature=25 25 25 26 27 26 27 9 5 3 22 24 22 21 9 13 5 27 24 22 22 22 26 27 26 24 11 0 18 21
split_gain=25.5067 15.4988 11.4289 10.0895 9.04385 4.48127 4.66831 3.78259 3.62954 3.38787 3.32824 3.14194 3.10424 3.0427 2.90735 2.92879 2.90372 2.80139 3.38761 4.34079 2.78026 2.71438 2.69669 3.34316 2.65203 2.62164 2.51233 2.47894 2.41606 2.30998
threshold=1.2450000000000003 0.59250000000000014 0.98450000000000015 0.76750000000000018 0.89550000000000007 0.9255000000000001 0.90650000000000008 1.6075000000000002 0.7985000000000001 1.8335000000000004 1.0885000000000002 1.0065000000000002 0.74450000000000016 0.99950000000000017 1.0365000000000002 1.3085000000000002 1.0855000000000001 1.3285000000000002 1.0755000000000001 1.0235000000000001 0.81650000000000011 1.0735000000000003 0.89650000000000007 0.81050000000000011 0.99350000000000016 1.1375000000000002 0.97150000000000014 1.0725000000000002 -0.81599999999999995 1.0095000000000003
decision_type=2 2 2 2 2 2 2 2 2 2 2 2 2 2 2 2 2 2 2 2 2 2 2 2 2 2 2 2 2 2
left_child=1 14 3 8 13 16 -7 17 21 10 12 -8 -2 22 15 20 -4 18 19 27 -1 -3 23 25 -14 -5 -25 -6 -12 -21
right_child=9 2 5 4 7 6 11 -9 -10 -11 28 -13 24 -15 -16 -17 -18 -19 -20 29 -22 -23 -24 26 -26 -27 -28 -29 -30 -31
leaf_value=-0.001451121366082741 0.003806878907500573 -0.0074815517639223467 -0.0088986082548597242 0.01012463349977444 -0.0009732484474949453 0.0074825929540596652 -0.0081071407113173233 0.011631076037883759 0.004239447853823965 -0.015920785508657758 -0.0083166097655244502 0.00091290097487600232 -0.0035204667785314215 0.0031226365930504272 0.00098225446130735766 0.0048673702137810851 0.005614713951945305 -0.0051680506526173417 0.0058799475138441902 0.012137699336744846 -0.0083894904971122744 0.011687568426132203 0.012611841168140342 -0.0047463243574271969 -0.010599775341958455 -0.0083640346676111237 0.013117372817718066 -0.013207676176783407 0.001436233782186741 -0.00047113888320468719
leaf_weight=203 53 241 249 464 87 178 146 97 129 95 92 285 179 198 227 63 40 143 356 64 500 20 489 81 507 20 26 79 205 84
leaf_count=203 53 241 249 464 87 178 146 97 129 95 92 285 179 198 227 63 40 143 356 64 500 20 489 81 507 20 26 79 205 84
internal_value=0 0.0304291 0.061905 0.0957472 0.122159 -0.0352501 0.0134133 0.0459693 -0.0524315 -0.137677 -0.121104 -0.0428522 -0.157036 0.17641 -0.0797524 -0.109208 -0.137797 0.0236996 0.0508185 -0.0248944 -0.127719 -0.120253 0.197303 0.151849 -0.175051 0.187213 -0.00811226 -0.135913 -0.031697 0.0996266
internal_weight=0 4469 3476 2578 2188 898 609 910 390 1131 1036 431 739 1278 993 766 289 813 670 314 703 261 1080 591 686 484 107 166 297 148
internal_count=5600 4469 3476 2578 2188 898 609 910 390 1131 1036 431 739 1278 993 766 289 813 670 314 703 261 1080 591 686 484 107 166 297 148
shrinkage=0.05


Tree=13
num_leaves=31
num_cat=0
split_feature=25 25 25 26 21 3 26 5 5 13 3 22 0 22 13 2 22 5 24 22 26 5 24 6 9 0 14 18 0 24
split_gain=23.0198 13.9876 10.3146 9.10581 6.00027 4.50949 4.04435 3.9977 3.27566 3.18611 3.05755 3.00374 2.84532 2.80158 2.72167 2.92783 2.65098 2.62397 2.47552 2.44973 2.39346 2.38895 2.33615 2.32887 2.32553 2.29851 2.24853 2.18049 2.16986 2.13259
threshold=1.2450000000000003 0.59250000000000014 0.98450000000000015 0.76750000000000018 1.0715000000000001 1.5555000000000001 0.9255000000000001 0.66750000000000009 0.7985000000000001 0.73250000000000004 1.8335000000000004 1.0885000000000002 2.4065000000000007 0.74450000000000016 0.9405 -1.3835 1.0065000000000002 1.0725000000000002 0.71050000000000002 1.0735000000000003 0.99350000000000016 1.2955000000000003 1.7065000000000001 1.0375000000000003 1.0245000000000002 1.3285000000000002 -1.2704999999999997 -0.81599999999999995 0.90350000000000008 1.1005000000000003
decision_type=2 2 2 2 2 2 2 2 2 2 2 2 2 2 2 2 2 2 2 2 2 2 2 2 2 2 2 2 2 2
left_child=1 14 3 8 5 16 17 -6 19 -7 11 13 21 -2 28 -16 25 18 -4 -3 -15 -8 26 -17 -20 -5 -9 -13 -1 -22
right_child=10 2 6 4 7 9 12 22 -10 -11 -12 27 -14 20 15 23 -18 -19 24 -21 29 -23 -24 -25 -26 -27 -28 -29 -30 -31
leaf_value=-0.0085643128771334884 0.003616534848258181 -0.0071074741138956862 0.00062893691815828028 0.0082104612112819369 -0.0091248156236750748 0.0082880148386701626 -0.00033124279126235272 -0.0081256434321403514 0.0040274756361347759 -0.0033237432908711944 -0.015124746278712626 -0.0079007794837588855 -0.01661378210005553 -0.0033444433405412644 -0.013582164943218232 -0.00042128523060104301 0.011466510814021934 0.0050084267698583158 -0.013926147514736498 0.011103190779685974 -0.01278550270819824 0.0075081006177072605 -0.010453451722860337 0.011304785024661285 0.00018935364981492362 0.0027964393505578713 0.0054107973482578429 0.0013644221134302094 -0.0028982161851235609 -0.006197617063967235
leaf_weight=320 53 241 57 770 84 94 463 34 129 159 95 92 23 179 35 228 440 42 154 20 298 123 30 52 36 263 314 205 358 209
leaf_count=320 53 241 57 770 84 94 463 34 129 159 95 92 23 179 35 228 440 42 154 20 298 123 30 52 36 263 314 205 358 209
internal_value=0 0.0289076 0.0588097 0.0909598 0.116051 0.143145 -0.0334876 0.0148325 -0.0498099 0.0198101 -0.130794 -0.115049 0.0127427 -0.149184 -0.0757648 0.00104254 0.164328 -0.130907 -0.170199 -0.11424 -0.166298 0.0262843 0.0586833 0.0351283 -0.225033 0.136641 0.0817654 -0.0301121 -0.11145 -0.201396
internal_weight=0 4469 3476 2578 2188 1726 898 462 390 253 1131 1036 609 739 993 315 1473 289 247 261 686 586 378 280 190 1033 348 297 678 507
internal_count=5600 4469 3476 2578 2188 1726 898 462 390 253 1131 1036 609 739 993 315 1473 289 247 261 686 586 378 280 190 1033 348 297 678 507
shrinkage=0.05


Tree=14
num_leaves=31
num_cat=0
split_feature=25 25 25 26 27 26 27 0 9 24 3 22 27 27 0 3 26 21 22 26 26 27 26 27 9 24 24 13 9 11
split_gain=20.7754 12.6238 9.3089 8.24615 7.99738 3.65002 4.22835 3.57274 3.03888 2.81913 2.75944 2.71469 2.6797 3.66552 3.36975 3.04959 2.55951 2.46945 2.46683 2.80207 2.4365 2.92396 2.42124 3.00799 2.35849 3.05751 2.28981 2.23388 2.69023 2.2264
threshold=1.2450000000000003 0.59250000000000014 0.98450000000000015 0.77650000000000008 0.89550000000000007 0.9255000000000001 0.90650000000000008 1.7805000000000002 1.6075000000000002 1.0065000000000002 1.8335000000000004 1.1195000000000002 0.83850000000000013 0.81650000000000011 0.96350000000000013 0.43450000000000005 0.86050000000000015 0.98350000000000015 0.74450000000000016 0.98250000000000004 0.95850000000000013 1.3285000000000002 0.85350000000000015 0.79950000000000021 1.0015000000000003 0.71050000000000002 1.0755000000000001 0.69850000000000012 0.66050000000000009 -0.72749999999999992
decision_type=2 2 2 2 2 2 2 2 2 2 2 2 2 2 2 2 2 2 2 2 2 2 2 2 2 2 2 2 2 2
left_child=1 12 3 -3 22 24 -7 8 20 -8 11 18 13 14 15 -1 -17 -14 -2 27 -6 -22 23 -5 25 -4 -9 -20 -29 -30
right_child=10 2 5 4 7 6 9 26 -10 -11 -12 -13 17 -15 -16 16 -18 -19 19 -21 21 -23 -24 -25 -26 -27 -28 28 29 -31
leaf_value=0.0075457676417297788 0.0034357081606702987 -0.0021076631995194267 0.0015925583644555168 0.0072878922998290702 -0.0036805444086591404 0.0070882688328791207 -0.0077219803039341763 -0.013390703259834222 0.011827318566841084 0.00082214231553830598 -0.014368508913015067 -0.0011211341965511052 -0.010314203677403981 0.011430559188127519 0.0016673058392065257 -0.0095352716594336029 0.0064091678176607415 -0.0021874729497933093 -0.012355696977604004 -0.0095358767209778473 0.0054430281257683462 -0.0036690179055387327 0.0096109065392945316 -0.0032161912054158334 0.0012767295365209705 -0.012363422121852638 0.0003083487055194912 -0.016077138856053354 -0.0076605318534758784 0.0080178175476335357
leaf_weight=36 53 418 52 291 144 178 146 56 91 285 95 267 221 50 247 249 28 162 42 539 441 110 871 89 77 160 67 20 31 84
leaf_count=36 53 418 52 291 144 178 146 56 91 285 95 267 221 50 247 249 28 162 42 539 441 110 871 89 77 160 67 20 31 84
internal_value=0 0.0274622 0.0558692 0.0864118 0.111292 -0.0318132 0.0121055 0.0399087 0.0647092 -0.0414431 -0.124254 -0.109296 -0.0719765 -0.030814 -0.0539769 -0.122887 -0.158471 -0.137536 -0.139459 -0.154869 0.0422096 0.0724785 0.16316 0.0965545 -0.124362 -0.178805 -0.118572 -0.0457019 0.0169596 0.0758296
internal_weight=0 4469 3476 2578 2160 898 609 909 786 431 1131 1036 993 610 560 313 277 383 769 716 695 551 1251 380 289 212 123 177 135 115
internal_count=5600 4469 3476 2578 2160 898 609 909 786 431 1131 1036 993 610 560 313 277 383 769 716 695 551 1251 380 289 212 123 177 135 115
shrinkage=0.05


Tree=15
num_leaves=31
num_cat=0
split_feature=25 5 27 0 22 25 9 3 5 22 1 25 15 4 24 25 10 13 9 19 9 2 4 21 21 24 9 13 25 25
split_gain=19.8887 9.34682 9.8204 7.50944 5.36113 4.21291 3.92163 3.41168 3.45038 3.25998 3.21175 3.02958 2.66049 2.62385 2.60082 2.46605 2.45765 2.3566 2.34659 2.71644 2.37287 2.30015 2.26834 2.18845 2.09218 2.05855 2.02801 1.97955 1.95453 2.83978
threshold=1.2815000000000001 0.88150000000000006 0.90250000000000019 1.7460000000000002 1.0705000000000002 0.53150000000000019 1.1375000000000002 1.7675000000000003 1.3365000000000002 0.72750000000000015 -0.25349999999999995 1.8325000000000002 0.76450000000000007 1.1745000000000003 1.0755000000000001 0.49500000000000005 1.1075000000000002 0.56450000000000011 0.65150000000000008 1.0965 0.84750000000000003 0.39150000000000007 1.3745000000000003 0.68550000000000011 2.1875000000000004 1.9065000000000001 0.99650000000000005 0.56450000000000011 1.0455000000000003 0.62350000000000005
decision_type=2 2 2 2 2 2 2 2 2 2 2 2 2 2 2 2 2 2 2 2 2 2 2 2 2 2 2 2 2 2
left_child=1 4 5 7 6 10 9 8 13 17 -3 16 26 28 -5 -11 -2 -1 19 27 -20 -9 -22 -8 -6 -16 -12 -17 29 -4
right_child=11 2 3 14 24 -7 23 21 -10 15 12 -13 -14 -15 25 18 -18 -19 20 -21 22 -23 -24 -25 -26 -27 -28 -29 -30 -31
leaf_value=-0.0041686714268647706 -0.0033406330310568524 0.0072696673683822158 -0.0050073225749656565 -0.01558608502508646 0.005392766965202766 0.0083722867316039142 0.018704391581316791 -0.00022902693234237972 0.0086476237849986305 -0.0080429063936476777 -0.018029889533686085 -0.010131713943112464 0.0080051299184560783 -0.010021465224154452 0.0005628696539335781 0.0064813806209713222 -0.012638310082256793 0.0065102064336826602 -0.0068090569361297501 0.0085429109269525953 -0.0025730178572176588 -0.013320393532514572 0.010926678294644637 0.0027082292401060769 -0.0052623951377776951 -0.017569863200187684 -0.00054598533444934422 -0.0031881105227797644 -0.0041341092052130865 0.0068360420790585606
leaf_weight=78 637 80 64 83 404 945 24 102 235 247 43 336 24 47 72 64 80 153 419 82 367 50 34 196 52 20 27 306 87 242
leaf_count=78 637 80 64 83 404 945 24 102 235 247 43 336 24 47 72 64 80 153 419 82 367 50 34 196 52 20 27 306 87 242
internal_value=0 0.0282384 0.0767275 0.00481981 -0.0141547 0.141117 -0.0367715 0.044643 0.075122 -0.052591 -0.00187705 -0.124279 -0.127214 0.0228717 -0.183373 -0.0694222 -0.0875606 0.058087 -0.051667 0.0061843 -0.0835557 -0.090708 -0.0285681 0.0890653 0.0835541 -0.0675806 -0.225722 -0.030311 0.0495769 0.08718
internal_weight=0 4547 2121 1002 2426 1119 1970 827 675 1750 174 1053 94 440 175 1519 717 231 1272 452 820 152 401 220 456 92 70 370 393 306
internal_count=5600 4547 2121 1002 2426 1119 1970 827 675 1750 174 1053 94 440 175 1519 717 231 1272 452 820 152 401 220 456 92 70 370 393 306
shrinkage=0.05


Tree=16
num_leaves=31
num_cat=0
split_feature=25 5 27 0 22 26 26 27 24 25 25 24 27 5 0 3 25 26 17 4 10 27 22 17 10 24 26 21 21 0
split_gain=17.9495 8.43551 8.86291 6.77727 4.83842 4.13575 3.94612 6.19423 5.13838 4.25794 3.20709 3.03681 4.3452 2.98582 2.92443 2.7896 2.65496 2.6117 2.61069 2.49654 2.63483 2.46451 2.45071 2.41074 2.67553 2.34724 2.30327 2.20546 2.14655 2.22153
threshold=1.2815000000000001 0.88150000000000006 0.90250000000000019 1.7460000000000002 1.0705000000000002 0.81150000000000011 0.72850000000000015 0.83850000000000013 0.9265000000000001 0.94550000000000012 0.61050000000000015 1.2485000000000002 0.88950000000000007 1.3365000000000002 1.0645000000000002 2.0310000000000001 0.98950000000000016 0.84350000000000014 2.0440000000000005 0.70150000000000012 0.68250000000000011 0.6785000000000001 0.77250000000000008 0.63950000000000007 -0.13549999999999998 1.0755000000000001 1.0195000000000003 0.64450000000000018 0.78850000000000009 0.40750000000000003
decision_type=2 2 2 2 2 2 2 2 2 2 2 2 2 2 2 2 2 2 2 2 2 2 2 2 2 2 2 2 2 2
left_child=1 4 5 10 6 13 21 9 -9 17 -4 12 14 -3 19 16 -12 -8 -13 20 -2 28 -23 24 -6 -5 -10 -19 -1 -30
right_child=11 2 3 25 23 -7 7 8 26 -11 15 18 -14 -15 -16 -17 -18 27 -20 -21 -22 22 -24 -25 -26 -27 -28 -29 29 -31
leaf_value=-0.0090461464162836687 0.007139688075102609 -0.00094022052323264923 -0.0047181622663014372 -0.014806780991065933 -0.010583882933517672 0.0085972914772648977 0.0012447911260187793 -0.010982613356745973 -0.005069529928267002 -0.0042241983875936388 0.0071413226059856968 -0.0030705732407329753 -0.010284923854102178 0.010448970508418587 -0.014959178668887994 -0.0058449956942612019 0.00033026797130769571 -0.0021239970624446869 0.013797941625118257 -0.0081197568913921724 -0.0094842242697874713 0.0060080008847372872 -0.012102903037734286 0.0059572183593385921 0.0053796883672475818 -0.0032100774023843849 0.0023362794410589057 0.0093353876630768527 -0.014527744249157286 0.0019797510441455098
leaf_weight=94 116 237 142 83 53 806 359 196 200 196 387 278 502 76 38 71 227 50 25 64 30 21 169 351 52 92 221 262 23 179
leaf_count=94 116 237 142 83 53 806 359 196 200 196 387 278 502 76 38 71 227 50 25 64 30 21 169 351 52 92 221 262 23 179
internal_value=0 0.0268264 0.0728911 0.00457882 -0.0134469 0.134061 -0.0349329 -0.00932037 -0.0859054 0.0451813 0.0424109 -0.118065 -0.152199 0.0365041 -0.0439061 0.070764 0.0924646 0.0830567 -0.0335756 0.00228692 0.0744763 -0.113141 -0.202023 0.0793764 -0.0535623 -0.174205 -0.0236384 0.149979 -0.0560879 0.00200369
internal_weight=0 4547 2121 1002 2426 1119 1970 1484 617 867 827 1053 750 313 248 685 614 671 303 210 146 486 190 456 105 175 421 312 296 202
internal_count=5600 4547 2121 1002 2426 1119 1970 1484 617 867 827 1053 750 313 248 685 614 671 303 210 146 486 190 456 105 175 421 312 296 202
shrinkage=0.05


Tree=17
num_leaves=31
num_cat=0
split_feature=27 26 24 5 0 5 3 5 0 17 24 26 24 3 0 26 23 27 5 6 27 6 21 24 27 10 9 6 5 18
split_gain=11.5412 10.4789 9.82515 4.70027 4.02371 3.93869 2.86528 2.99522 3.41777 2.74356 3.19863 2.69588 2.00329 2.23256 2.35459 2.11825 3.23363 1.88743 1.87562 2.02382 2.27761 1.85321 1.84809 1.81771 2.2284 3.18247 2.73181 2.26419 2.19345 1.87509
threshold=0.90450000000000019 0.81150000000000011 0.99350000000000016 1.1135000000000004 1.3835000000000004 0.88150000000000006 2.0310000000000001 1.1425000000000003 2.0115000000000003 0.57750000000000012 0.77650000000000008 1.1165 0.66250000000000009 0.42050000000000004 0.90750000000000008 0.72850000000000015 1.2665000000000004 1.9440000000000002 1.5635000000000003 1.2175000000000002 0.81250000000000011 0.97950000000000015 0.91250000000000009 1.0335000000000003 0.72450000000000014 -0.071499999999999994 0.63650000000000018 0.15150000000000002 0.72550000000000014 0.058500000000000003
decision_type=2 2 2 2 2 2 2 2 2 2 2 2 2 2 2 2 2 2 2 2 2 2 2 2 2 2 2 2 2 2
left_child=1 3 4 12 9 -3 7 -4 11 -2 -11 -9 13 -1 -15 16 22 -13 19 21 -21 -7 -14 24 25 -17 -26 -27 -29 -28
right_child=2 5 6 -5 -6 18 -8 8 -10 10 -12 17 15 14 -16 23 -18 -19 -20 20 -22 -23 -24 -25 26 27 29 28 -30 -31
leaf_value=0.0082177273827056373 -0.011970820996138427 0.0019709874652138908 -0.0013851013253716863 0.0067814580061369483 -0.012381500696419648 0.0058302692421104601 -0.0067484281298254628 0.012008913176564072 -0.0072547051039609043 0.0027531864373914658 -0.0056537018577637148 0.0018535850175789425 -0.010991366581861364 -0.0051191389192769554 0.0058548729334558756 -0.005175802479772007 0.010859584311644237 0.014362324277559915 0.013396267880770293 0.0070290143601596357 -0.011426994800567629 0.015854052986417497 -0.0035272414375234536 0.0087498493100467475 0.0038281497602560086 0.018254675609724862 -0.016224150732159614 -0.0089767083525657664 0.013443473502993583 -0.0047734296800177774
leaf_weight=73 111 995 782 144 233 782 147 104 66 155 419 350 215 162 70 85 24 33 88 32 35 49 135 38 49 35 64 24 20 81
leaf_count=73 111 995 782 144 233 782 147 104 66 155 419 350 215 162 70 85 24 33 88 32 35 49 135 38 49 35 64 24 20 81
internal_value=0 0.0389179 -0.0528179 -0.034032 -0.134113 0.0838072 -0.00246073 0.01213 0.0684567 -0.0955013 -0.067671 0.0973979 -0.0567587 0.0118318 -0.0361603 -0.0839276 -0.137898 0.0586272 0.1286 0.114947 -0.0522437 0.128426 -0.162247 -0.0329556 -0.0550288 0.0307804 -0.127568 0.175276 0.0242857 -0.196551
internal_weight=0 3200 2400 1219 918 1981 1482 1335 553 685 574 487 1075 305 232 770 374 383 986 898 67 831 350 396 358 164 194 79 44 145
internal_count=5600 3200 2400 1219 918 1981 1482 1335 553 685 574 487 1075 305 232 770 374 383 986 898 67 831 350 396 358 164 194 79 44 145
shrinkage=0.05


Tree=18
num_leaves=31
num_cat=0
split_feature=25 25 26 27 25 5 24 0 5 21 1 27 10 26 25 0 0 5 9 21 9 21 27 21 13 22 11 2 27 26
split_gain=16.1245 10.0239 6.28489 5.9239 4.26429 3.69043 3.5453 2.79083 2.93574 2.77711 3.33755 4.25698 3.30997 2.74361 5.39797 2.73978 2.70667 2.95618 2.63714 2.4326 2.43171 2.36347 2.71501 2.45254 2.32016 2.27243 2.23907 2.20564 2.16996 2.17761
threshold=1.0565000000000002 0.67450000000000021 0.77650000000000008 1.0105000000000002 1.8325000000000002 1.3365000000000002 1.2745000000000002 1.2355000000000003 0.85650000000000015 0.85150000000000003 0.89550000000000007 0.95350000000000013 -1.4834999999999998 0.85650000000000015 0.84250000000000014 1.2435000000000003 1.7460000000000002 1.1085 0.76250000000000007 1.1275000000000002 1.1375000000000002 1.0995000000000001 0.9265000000000001 0.62050000000000016 1.3085000000000002 0.69250000000000012 -1.4719999999999998 0.13150000000000003 0.7965000000000001 0.8055000000000001
decision_type=2 2 2 2 2 2 2 2 2 2 2 2 2 2 2 2 2 2 2 2 2 2 2 2 2 2 2 2 2 2
left_child=1 5 7 13 6 9 21 8 -3 20 11 12 -11 14 -4 28 17 19 27 -5 25 23 -23 -2 26 -1 -14 -8 29 -16
right_child=4 2 3 16 -6 -7 18 -9 -10 10 -12 -13 24 -15 15 -17 -18 -19 -20 -21 -22 22 -24 -25 -26 -27 -28 -29 -30 -31
leaf_value=0.00069271312518553313 0.0013434555414503656 -0.0037574355848027634 0.0073727382790474668 0.0014198984778844394 -0.0091911847725333201 0.0054437256163092944 0.0012326297773556276 -0.012014296976849437 0.0069866744862807978 -0.013096234848101934 -0.0073950685847264074 -0.0073232109035093959 -0.010500647641461471 0.0072299789206796061 -0.0076378699520538596 -0.015330080965230631 -0.0087236639011550599 0.0059128374339790521 0.0044690141325880745 -0.0083030758270372946 0.0060499790769356953 0.0083479329529735774 -0.0039335095509886748 -0.0065926253244513984 0.015101667892101201 -0.0088631353628488233 0.0039212124671209308 -0.015723172312273697 -0.011347507685422899 0.009142697422668853
leaf_weight=77 113 211 231 195 336 157 44 64 91 30 156 127 29 1246 29 43 74 218 232 96 39 72 120 703 43 324 374 34 34 58
leaf_count=77 113 211 231 195 336 157 44 64 91 30 156 127 29 1246 29 43 74 218 232 96 39 72 120 703 43 324 374 34 34 58
internal_value=0 0.034363 0.0708317 0.0908153 -0.0832594 -0.0352932 -0.0576224 -0.0505982 -0.0103994 -0.0541709 -0.0175278 0.0162007 0.0596008 0.121577 0.0489555 -0.0897842 0.00422753 0.0302076 0.0359006 -0.0357536 -0.11738 -0.0863844 0.0134406 -0.109873 0.0812281 -0.140564 0.0576682 -0.123167 -0.0127334 0.0709835
internal_weight=0 3946 2590 2224 1654 1356 1318 366 302 1199 759 603 476 1641 395 164 583 509 310 291 440 1008 192 816 446 401 403 78 121 87
internal_count=5600 3946 2590 2224 1654 1356 1318 366 302 1199 759 603 476 1641 395 164 583 509 310 291 440 1008 192 816 446 401 403 78 121 87
shrinkage=0.05


Tree=19
num_leaves=31
num_cat=0
split_feature=25 25 26 27 25 22 13 27 26 26 24 22 0 26 25 0 4 24 6 1 9 24 24 9 15 0 27 22 24 11
split_gain=14.5523 9.04659 5.67211 5.34632 3.84852 3.30635 2.91047 2.8279 2.60991 2.54196 2.537 3.403 2.51872 2.47611 4.87167 2.47265 2.3985 2.25848 2.25021 2.2362 3.66228 2.19305 2.40402 2.14356 2.51169 2.13697 2.06836 3.01018 3.445 2.05163
threshold=1.0565000000000002 0.67450000000000021 0.77650000000000008 1.0105000000000002 1.8325000000000002 1.0265000000000002 0.9405 1.0475000000000001 0.84550000000000003 1.4625000000000001 1.0845000000000002 0.87550000000000006 1.2355000000000003 0.85650000000000015 0.84250000000000014 1.2435000000000003 0.38350000000000001 0.98950000000000016 0.63850000000000018 0.89550000000000007 1.1415000000000004 0.77050000000000007 1.3025000000000002 0.82350000000000012 -0.37349999999999994 1.1195000000000002 0.85950000000000015 0.97950000000000015 0.99950000000000017 0.91550000000000009
decision_type=2 2 2 2 2 2 2 2 2 2 2 2 2 2 2 2 2 2 2 2 2 2 2 2 2 2 2 2 2 2
left_child=1 6 12 13 5 7 19 10 -7 17 -2 16 23 14 -4 -16 29 -5 25 20 -1 -10 -23 -3 -25 -11 -15 28 -28 -12
right_child=4 2 3 9 -6 8 -8 -9 21 18 11 -13 -14 26 15 -17 -18 -19 -20 -21 -22 22 -24 24 -26 -27 27 -29 -30 -31
leaf_value=-0.0034694998970233992 -0.0048800864606905895 -0.003728170598808088 0.0070041013938007936 -0.0074602537288153475 -0.008731625586127242 -0.016839271858334542 0.0015940890999029803 -0.0095061966992705787 0.011588945315808667 0.0067246653483464163 0.0092803769452231271 -0.0052788553110669177 -0.011413582274690271 0.0086298181384091288 -0.00060483631023690722 -0.014563577085040337 0.016736749774879881 0.00054197839590219355 0.015473953634500505 -0.0081211376408631894 0.0068947526692139981 -0.0022213485995025346 0.0066929119937824758 0.01430094394494187 -0.0010304275242721333 -0.0097978116678340103 -0.0058226759191107964 0.0084062693386922089 0.0055375265288938047 -0.0094735069870948794
leaf_weight=613 471 190 231 121 336 20 453 214 49 65 35 89 64 713 121 43 45 325 44 191 99 264 106 44 68 28 113 257 163 25
leaf_count=613 471 190 231 121 336 20 453 214 49 65 35 89 64 713 121 43 45 325 44 191 99 264 106 44 68 28 113 257 163 25
internal_value=0 0.0326449 0.0672902 0.0862745 -0.0790964 -0.0547413 -0.0335286 -0.0901373 0.0161315 0.00401615 -0.0579612 0.0382795 -0.0480683 0.115499 0.0465078 -0.085295 0.160215 -0.0325806 0.123156 -0.0663424 -0.0405681 0.0329771 0.00664933 -0.00987947 0.0998522 0.0350031 0.13737 0.0902464 0.0177286 0.0293252
internal_weight=0 3946 2590 2224 1654 1318 1356 879 439 583 665 194 366 1641 395 164 105 446 137 903 712 419 370 302 112 93 1246 533 276 60
internal_count=5600 3946 2590 2224 1654 1318 1356 879 439 583 665 194 366 1641 395 164 105 446 137 903 712 419 370 302 112 93 1246 533 276 60
shrinkage=0.05


end of trees

feature importances:
26=78
28=68
27=67
25=60
6=58
23=53
10=32
4=31
1=30
22=26
14=20
7=10
5=9
2=8
11=7
18=7
3=6
12=6
19=6
20=6
15=5
24=4
16=2
9=1

parameters:
[boosting: gbdt]
[objective: regression]
[metric: l2,l1]
[tree_learner: serial]
[device_type: cpu]
[data: ]
[valid: ]
[num_iterations: 100]
[learning_rate: 0.05]
[num_leaves: 31]
[num_threads: 0]
[max_depth: -1]
[min_data_in_leaf: 20]
[min_sum_hessian_in_leaf: 0.001]
[bagging_fraction: 0.8]
[pos_bagging_fraction: 1]
[neg_bagging_fraction: 1]
[bagging_freq: 5]
[bagging_seed: 3]
[feature_fraction: 0.9]
[feature_fraction_bynode: 1]
[feature_fraction_seed: 2]
[early_stopping_round: 0]
[first_metric_only: 0]
[max_delta_step: 0]
[lambda_l1: 0]
[lambda_l2: 0]
[min_gain_to_split: 0]
[drop_rate: 0.1]
[max_drop: 50]
[skip_drop: 0.5]
[xgboost_dart_mode: 0]
[uniform_drop: 0]
[drop_seed: 4]
[top_rate: 0.2]
[other_rate: 0.1]
[min_data_per_group: 100]
[max_cat_threshold: 32]
[cat_l2: 10]
[cat_smooth: 10]
[max_cat_to_onehot: 4]
[top_k: 20]
[monotone_constraints: ]
[feature_contri: ]
[forcedsplits_filename: ]
[forcedbins_filename: ]
[refit_decay_rate: 0.9]
[cegb_tradeoff: 1]
[cegb_penalty_split: 0]
[cegb_penalty_feature_lazy: ]
[cegb_penalty_feature_coupled: ]
[verbosity: 0]
[max_bin: 255]
[max_bin_by_feature: ]
[min_data_in_bin: 3]
[bin_construct_sample_cnt: 200000]
[histogram_pool_size: -1]
[data_random_seed: 1]
[output_model: LightGBM_model.txt]
[snapshot_freq: -1]
[input_model: ]
[output_result: LightGBM_predict_result.txt]
[initscore_filename: ]
[valid_data_initscores: ]
[pre_partition: 0]
[enable_bundle: 1]
[max_conflict_rate: 0]
[is_enable_sparse: 1]
[sparse_threshold: 0.8]
[use_missing: 1]
[zero_as_missing: 0]
[two_round: 0]
[save_binary: 0]
[header: 0]
[label_column: ]
[weight_column: ]
[group_column: ]
[ignore_column: ]
[categorical_feature: ]
[predict_raw_score: 0]
[predict_leaf_index: 0]
[predict_contrib: 0]
[num_iteration_predict: -1]
[pred_early_stop: 0]
[pred_early_stop_freq: 10]
[pred_early_stop_margin: 10]
[convert_model_language: ]
[convert_model: gbdt_prediction.cpp]
[num_class: 1]
[is_unbalance: 0]
[scale_pos_weight: 1]
[sigmoid: 1]
[boost_from_average: 1]
[reg_sqrt: 0]
[alpha: 0.9]
[fair_c: 1]
[poisson_max_delta_step: 0.7]
[tweedie_variance_power: 1.5]
[max_position: 20]
[lambdamart_norm: 1]
[label_gain: ]
[metric_freq: 1]
[is_provide_training_metric: 0]
[eval_at: ]
[multi_error_top_k: 1]
[num_machines: 1]
[local_listen_port: 12400]
[time_out: 120]
[machine_list_filename: ]
[machines: ]
[gpu_platform_id: -1]
[gpu_device_id: -1]
[gpu_use_dp: 0]

end of parameters

pandas_categorical:[]
